svm_type c_svc
kernel_type rbf
gamma 0.142857
nr_class 3
total_sv 107
rho 0.315469 -0.428926 -0.609802
label -1 1 0
nr_sv 35 52 20
SV
1 0.5710101335153281 1:865 2:0 3:13 4:2.25 5:45 6:61 7:1.036689 
1 0.5709865924106527 1:390 2:1 3:6 4:3.5 5:18 6:28 7:1.0869216 
1 0.5732853571086347 1:93 2:0 3:3 4:0 5:6 6:6 7:-0.876601 
1 0.5718200656180188 1:451 2:2 3:8 4:3 5:17 6:32 7:1.2387122 
1 0.5708947953426168 1:238 2:0 3:0 4:0 5:10 6:9 7:0.2007548 
1 0.5709865927611378 1:206 2:0 3:7 4:1.25 5:19 6:26 7:1.234078 
1 0.5708936736051244 1:1068 2:4 3:24 4:5.375 5:76 6:92 7:0.60599596 
1 0.5710099004469407 1:777 2:4 3:14 4:0.75 5:48 6:52 7:0.41707285 
1 0.5708947953724962 1:1970 2:11 3:30 4:-3.75 5:110 6:111 7:0.35354401 
1 0.5708936761672248 1:123 2:1 3:1 4:0.625 5:4 6:3 7:0.24826832 
1 0.5710101319992547 1:158 2:0 3:2 4:1.375 5:12 6:15 7:0.61941816 
1 0.5709854706285198 1:2426 2:2 3:25 4:6 5:85 6:136 7:1.0300231 
1 0.5709865924106429 1:2694 2:5 3:45 4:13.5 5:104 6:178 7:1.2787507 
1 0.5709865924106523 1:2830 2:6 3:47 4:12 5:119 6:181 7:1.1249326 
1 0.5710101319992547 1:3148 2:6 3:30 4:-3.25 5:164 6:163 7:-0.099151497 
1 0.5709865924106523 1:3679 2:8 3:43 4:5.625 5:166 6:204 7:0.66856202 
1 0.5708936735126702 1:2241 2:12 3:32 4:-3.375 5:119 6:126 7:0.35852602 
1 0.5718200663504132 1:1248 2:3 3:43 4:2.125 5:92 6:198 7:1.7298851 
1 0.5708936761672248 1:409 2:2 3:17 4:1.25 5:23 6:58 7:1.649255 
1 0.5708936836181437 1:1442 2:4 3:19 4:-2.375 5:60 6:83 7:0.77000079 
1 0.5710101319992549 1:269 2:0 3:4 4:-0.125 5:11 6:12 7:-0.14139519 
1 0.5710101335153281 1:1308 2:0 3:21 4:0.375 5:73 6:89 7:0.59939151 
1 0.5708936734281358 1:582 2:2 3:5 4:-0.75 5:45 6:48 7:0.77426325 
1 0.5718200663504132 1:471 2:1 3:9 4:-4.431 5:39 6:44 7:0.37136868 
1 0.5710099004469406 1:787 2:5 3:14 4:0.75 5:49 6:51 7:0.29342444 
1 0.5718200656180188 1:1990 2:12 3:30 4:-3.75 5:112 6:111 7:0.28331267 
1 0.5708936761672248 1:2391 2:2 3:22 4:4.5 5:82 6:131 7:1.0008545 
1 0.5709865924106432 1:2708 2:5 3:46 4:13.625 5:100 6:175 7:1.4130509 
1 0.5708936735998438 1:2939 2:4 3:35 4:3.5 5:114 6:158 7:0.76690992 
1 0.5810068652190146 1:49 2:0 3:0 4:1.875 5:5 6:4 7:-1.2808144 
1 0.5710101319992547 1:527 2:1 3:8 4:10.625 5:58 6:60 7:0.33113184 
1 0.5708936735126702 1:529 2:2 3:8 4:1.5 5:31 6:34 7:0.48135603 
1 0.5718200663504132 1:1097 2:3 3:30 4:4.75 5:59 6:105 7:0.90037151 
1 0.5708943601846467 1:85 2:0 3:1 4:1 5:4 6:1 7:-0.07200887 
1 0.5708947953425938 1:242 2:0 3:4 4:3.5 5:10 6:20 7:0.877054 
-0.6845922038672035 0.3900521453398075 1:3176 2:5 3:155 4:6.625 5:255 6:206 7:-0.082645794 
-0.684304120877008 0.3900515510662618 1:3099 2:9 3:158 4:35.25 5:275 6:280 7:0.3368834 
-0.6845591867802111 0.3900009905846886 1:2593 2:4 3:111 4:13.75 5:230 6:222 7:0.23129091 
-0.6845926244558239 0.3900514391715582 1:425 2:1 3:18 4:0.5 5:34 6:31 7:-0.29981926 
-0.6845694140632781 0.3904783410306471 1:2212 2:7 3:96 4:6.125 5:191 6:196 7:0.28287275 
-0.6845694486832401 0.390478428552223 1:441 2:1 3:5 4:3.5 5:20 6:33 7:1.1957266 
-0.7457155596720533 0.4279169575395048 1:47 2:0 3:1 4:-0.625 5:7 6:6 7:-0.72010073 
-0.6843041462629658 0.390478457235139 1:960 2:3 3:14 4:4.375 5:43 6:58 7:0.72176553 
-0.6845586379169115 0.390478341030647 1:1640 2:1 3:33 4:1.875 5:53 6:111 7:1.4847649 
-0.6845598684405978 0.3900303373023589 1:1069 2:6 3:17 4:-0.875 5:53 6:67 7:0.67563341 
-0.6845926244558239 0.3900303908302287 1:711 2:2 3:15 4:5 5:31 6:59 7:1.2116238 
-0.3398638058850249 0.1948196952781768 1:241 2:0 3:4 4:-0.875 5:12 6:15 7:0.36465181 
-0.6845695463174278 0.3904783697114466 1:138 2:2 3:4 4:0.125 5:9 6:14 7:1.0435661 
-0.7099008096187931 0.3905155532641959 1:88 2:1 3:2 4:0 5:4 6:5 7:0.46114365 
-0.6845691734333084 0.3897551554488432 1:3504 2:7 3:53 4:10.375 5:137 6:232 7:1.1552416 
-0.6845695463174506 0.3900500228047308 1:1978 2:2 3:28 4:7.125 5:76 6:104 7:0.99498264 
-0.6849921582432482 0.3904783410305709 1:2935 2:4 3:37 4:4.375 5:117 6:163 7:0.85425885 
-0.6845926244558239 0.3904784285521942 1:838 2:38 3:7 4:-28 5:98 6:58 7:-0.29517081 
-0.6845924400075545 0.3905136703586874 1:324 2:16 3:8 4:-8.75 5:37 6:28 7:0.27990524 
-0.6845696568251781 0.390030246540005 1:205 2:15 3:1 4:-9.75 5:30 6:7 7:-2.3041562 
-0.6845591973095075 0.3900303908302286 1:1970 2:1 3:33 4:-0.375 5:65 6:126 7:1.3282797 
-0.6845928022235021 0.3900500228047307 1:924 2:2 3:19 4:6.875 5:41 6:73 7:0.92733683 
-0.6845926244558517 0.3904814587951555 1:307 2:0 3:5 4:-0.875 5:18 6:21 7:0.22724115 
-0.6845928022235021 0.3904783410305711 1:1277 2:5 3:43 4:-0.375 5:95 6:198 7:1.547612 
-0.6845924400075545 0.3900521453398075 1:539 2:2 3:18 4:4.375 5:30 6:64 7:1.5139267 
-0.6845922038672035 0.3900510176443329 1:109 2:1 3:6 4:-0.5 5:7 6:22 7:3.0257793 
-0.6845926244558209 0.3900302465400033 1:264 2:0 3:11 4:-6.375 5:32 6:24 7:0.37320869 
-0.6842654099204908 0.3900018848124372 1:254 2:0 3:7 4:-4 5:25 6:16 7:0.051165858 
-0.6843063294293341 0.3900303908302097 1:152 2:0 3:5 4:-2.375 5:8 6:11 7:0.93519194 
-0.6844825964658903 0.3899806494666603 1:251 2:0 3:6 4:-8.875 5:20 6:14 7:-0.067418685 
-0.6846223305122896 0.3900009905846828 1:165 2:0 3:5 4:-1.25 5:14 6:15 7:0.38603808 
-0.6845591973095075 0.3904783697114594 1:990 2:2 3:15 4:5.25 5:38 6:73 7:1.0537874 
-0.6845591973095075 0.390478428552223 1:727 2:0 3:14 4:-5.125 5:60 6:76 7:0.91976316 
-0.6845598684405978 0.3905136703586874 1:951 2:6 3:20 4:-7.5 5:92 6:105 7:0.70220165 
-0.6845586263012048 0.3898903907485066 1:376 2:4 3:6 4:-3.125 5:34 6:42 7:0.51666818 
-0.6845922161236326 0.390030246540005 1:444 2:1 3:7 4:-3.5 5:51 6:47 7:0.43821261 
-0.6842985700759889 0.3900303908302286 1:1188 2:3 3:16 4:-1.431 5:59 6:62 7:0.39371542 
-0.6843041208770275 0.3900303373023588 1:1689 2:3 3:33 4:2.375 5:60 6:113 7:1.4208713 
-0.6845586379169115 0.3900500228047307 1:1053 2:5 3:17 4:-0.875 5:52 6:65 7:0.55115252 
-0.6842985700759889 0.3900500228047307 1:735 2:3 3:15 4:5.625 5:32 6:57 7:0.97275896 
-0.3462741387946731 0.1955452843978389 1:241 2:0 3:4 4:-0.875 5:12 6:15 7:0.4953164 
-0.684613547617575 0.3904784285521942 1:448 2:5 3:4 4:-5.5 5:59 6:27 7:-1.6165565 
-0.6843041208753624 0.3904782536276573 1:265 2:0 3:3 4:-2.25 5:30 6:12 7:-2.4242248 
-0.684592440006906 0.3904783697110892 1:247 2:1 3:0 4:-1.875 5:29 6:8 7:-3.1931049 
-0.6845591867802111 0.3900303373023589 1:187 2:0 3:2 4:-0.75 5:29 6:19 7:-1.4703656 
-0.6845926244558517 0.3904783697114468 1:3475 2:7 3:53 4:10.375 5:136 6:231 7:1.2159118 
-0.6845591973095075 0.3897551554488434 1:2748 2:5 3:46 4:12.5 5:113 6:173 7:0.8942673 
-0.685014433983401 0.3904814587951556 1:1994 2:2 3:28 4:6.5 5:74 6:102 7:0.6469832 
-0.6845695463174506 0.390478457235139 1:356 2:0 3:6 4:4.25 5:15 6:28 7:1.49415 
-0.6845586263012048 0.3900514391715583 1:337 2:1 3:13 4:3.5 5:14 6:23 7:0.65972493 
-0.6845691734333084 0.3900510176443329 1:479 2:1 3:6 4:7.625 5:18 6:29 7:0.88415079 
-0.6845750022443078 0.4517871473987203 1:40 2:1 3:0 4:0.625 5:3 6:4 7:0.388966 
-1 -1 1:288 2:0 3:4 4:2.25 5:11 6:17 7:0.85523537 
-1 -1 1:1150 2:3 3:16 4:-1.431 5:58 6:62 7:0.42591722 
-1 -1 1:180 2:0 3:4 4:2.25 5:11 6:12 7:0.50627338 
-1 -1 1:44 2:0 3:1 4:0 5:4 6:4 7:0.00050418434 
-1 -1 1:203 2:0 3:3 4:-2 5:11 6:18 7:0.88256848 
-1 -1 1:97 2:0 3:2 4:2.5 5:2 6:5 7:0.63103017 
-1 -1 1:1384 2:4 3:30 4:7.625 5:83 6:106 7:0.75515364 
-1 -1 1:1441 2:6 3:18 4:2.625 5:60 6:73 7:0.7029254 
-1 -1 1:1608 2:3 3:22 4:0.444 5:72 6:79 7:0.44803578 
-1 -1 1:917 2:4 3:17 4:1.375 5:56 6:59 7:0.3513537 
-1 -1 1:1260 2:5 3:17 4:-0.875 5:57 6:72 7:0.52347606 
-1 -1 1:1386 2:8 3:33 4:-0.5 5:110 6:205 7:1.483784 
-1 -1 1:1524 2:6 3:33 4:-9.625 5:112 6:196 7:1.1066451 
-1 -1 1:1867 2:6 3:67 4:1.75 5:132 6:259 7:1.3139994 
-1 -1 1:1979 2:4 3:82 4:13.625 5:153 6:307 7:1.6106102 
-1 -1 1:206 2:0 3:4 4:-3 5:17 6:15 7:-0.14320469 
-1 -1 1:291 2:2 3:12 4:-6.5 5:22 6:19 7:0.45537122 
-1 -1 1:1055 2:5 3:23 4:6.25 5:77 6:89 7:0.55057612 
-1 -1 1:1004 2:5 3:15 4:3.875 5:50 6:62 7:0.67423377 
-1 -1 1:254 2:4 3:6 4:2.125 5:13 6:12 7:0.053939027 
