svm_type c_svc
kernel_type rbf
gamma 0.142857
nr_class 3
total_sv 77
rho -0.357502 -0.703755 -0.517072
label 1 -1 0
nr_sv 40 25 12
SV
0.6425390517703881 0.2959731360741089 1:275 2:0 3:3 4:0.75 5:12 6:16 7:1.1331245 
0.6425412945672769 0.2958833811221903 1:254 2:0 3:1 4:0.125 5:13 6:19 7:0.84251723 
0.5843453987113665 0.8269858178268735 1:43 2:0 3:0 4:0 5:3 6:3 7:-0.0072585607 
0.6466648306260916 0.2881979098371562 1:18 2:0 3:0 4:0 5:0 6:0 7:-0.21684582 
0.483142606472568 0.2227154600338506 1:2 2:0 3:0 4:0 5:0 6:0 7:0.16927965 
0.6425728946151248 0.2961868786814028 1:3475 2:7 3:53 4:10.375 5:136 6:231 7:1.2159118 
0.6420837004284375 0.2961121706515298 1:2748 2:5 3:46 4:12.5 5:113 6:173 7:0.8942673 
0.6425593776597843 0.2962397021419849 1:1277 2:5 3:43 4:-0.375 5:95 6:198 7:1.547612 
0.6424662988175244 0.296805972206299 1:109 2:1 3:6 4:-0.5 5:7 6:22 7:3.0257793 
0.5958531937689878 0.2899703136494017 1:47 2:0 3:1 4:-0.625 5:7 6:6 7:-0.72010073 
0.4833347650065782 0.2227336141640976 1:4 2:0 3:1 4:0 5:0 6:1 7:1.4974172 
0.5864316052458369 0.218228393700283 1:48 2:0 3:1 4:0 5:4 6:5 7:0.44863509 
0.6424692059541173 0.296239614290903 1:67 2:0 3:0 4:-4.125 5:9 6:0 7:-2.09402 
0.6425593774553413 0.2962314388424033 1:195 2:0 3:2 4:-0.75 5:8 6:7 7:0.17823596 
0.6425412945526324 0.2961413109294264 1:448 2:5 3:4 4:-5.5 5:59 6:27 7:-1.6165565 
0.6425280158485742 0.2959548550633452 1:265 2:0 3:3 4:-2.25 5:30 6:12 7:-2.4242248 
0.641895788261756 0.2963267063771774 1:247 2:1 3:0 4:-1.875 5:29 6:8 7:-3.1931049 
0.6425280158485742 0.2968194314306994 1:187 2:0 3:2 4:-0.75 5:29 6:19 7:-1.4703656 
0.6424693931284826 0.2962397010768911 1:1188 2:3 3:16 4:-1.431 5:59 6:62 7:0.39371542 
0.6425240125074854 0.2958820338224361 1:1689 2:3 3:33 4:2.375 5:60 6:113 7:1.4208713 
0.6425280158485742 0.2960647459714434 1:735 2:3 3:15 4:5.625 5:32 6:57 7:0.97275896 
0.6435168172183355 0.2961846168296188 1:241 2:0 3:4 4:-0.875 5:12 6:15 7:0.4953164 
0.6425423768374134 0.2962353395719362 1:838 2:38 3:7 4:-28 5:98 6:58 7:-0.29517081 
0.6537115038224102 0.2966507850109454 1:268 2:0 3:4 4:0.75 5:13 6:17 7:0.5611568 
0.6425615860397389 0.2962314388424001 1:122 2:1 3:0 4:-0.625 5:9 6:9 7:0.94031163 
0.6425676196699325 0.2962145417207468 1:388 2:2 3:8 4:-2.625 5:32 6:30 7:0.38470354 
0.6425280158485742 0.296805972206299 1:3504 2:7 3:53 4:10.375 5:137 6:232 7:1.1552416 
0.484131912001125 0.2228361510509353 1:33 2:0 3:0 4:0 5:3 6:3 7:-0.074219268 
0.6425591896486089 0.2962582904041283 1:75 2:0 3:1 4:-0.625 5:8 6:5 7:-0.65599639 
0.5093409118916835 0.3100546567214153 1:47 2:0 3:0 4:0 5:3 6:3 7:-0.20798812 
0.6425240125074854 0.2960647459714433 1:376 2:4 3:6 4:-3.125 5:34 6:42 7:0.51666818 
0.6424693931284826 0.2962397021419939 1:179 2:0 3:12 4:8.5 5:12 6:23 7:1.0618148 
0.64253872783793 0.2961846168296996 1:3099 2:9 3:158 4:35.25 5:275 6:280 7:0.3368834 
0.6425387278379299 0.2958820338224361 1:2212 2:7 3:96 4:6.125 5:191 6:196 7:0.28287275 
0.64253872783793 0.2961950238282937 1:1640 2:1 3:33 4:1.875 5:53 6:111 7:1.4847649 
0.6425423768374134 0.2964068912586466 1:1069 2:6 3:17 4:-0.875 5:53 6:67 7:0.67563341 
0.4834909274572445 0.2230523891984018 1:34 2:0 3:0 4:0 5:1 6:3 7:1.6033622 
0.6425783736136439 0.2961950240734043 1:109 2:0 3:0 4:0.875 5:2 6:7 7:1.1452928 
0.8559893676556203 0.288180168795058 1:14 2:0 3:1 4:0 5:2 6:2 7:0.056050353 
0.6427512952129948 0.2961950238282938 1:162 2:0 3:4 4:0.875 5:4 6:9 7:0.63840787 
-1 0.4833766785854996 1:224 2:1 3:3 4:-0.25 5:17 6:11 7:-0.20234206 
-1 0.4928665758620364 1:49 2:0 3:0 4:1.875 5:5 6:4 7:-1.2808144 
-1 0.4825542367726373 1:123 2:1 3:1 4:0.625 5:4 6:3 7:0.24826832 
-1 0.4827571163082033 1:158 2:0 3:2 4:1.375 5:12 6:15 7:0.61941816 
-1 0.4828842324409175 1:2391 2:2 3:22 4:4.5 5:82 6:131 7:1.0008545 
-1 0.4833766785854935 1:2708 2:5 3:46 4:13.625 5:100 6:175 7:1.4130509 
-1 0.4827662840376847 1:269 2:0 3:4 4:-0.125 5:11 6:12 7:-0.14139519 
-1 0.4833766785855017 1:1308 2:0 3:21 4:0.375 5:73 6:89 7:0.59939151 
-1 0.4850537031922532 1:93 2:0 3:3 4:0 5:6 6:6 7:-0.876601 
-1 0.4828842324155665 1:238 2:0 3:0 4:0 5:10 6:9 7:0.2007548 
-1 0.4833766785855015 1:206 2:0 3:7 4:1.25 5:19 6:26 7:1.234078 
-1 0.4399471019204452 1:156 2:0 3:1 4:0.5 5:4 6:5 7:0.23266259 
-1 0.4833766785857525 1:787 2:5 3:14 4:0.75 5:49 6:51 7:0.29342444 
-1 0.4827533794015252 1:143 2:0 3:4 4:1.25 5:6 6:11 7:1.3222586 
-1 0.4827533839540116 1:2426 2:2 3:25 4:6 5:85 6:136 7:1.0300231 
-1 0.4828842324409096 1:2694 2:5 3:45 4:13.5 5:104 6:178 7:1.2787507 
-1 0.4833766785855017 1:2830 2:6 3:47 4:12 5:119 6:181 7:1.1249326 
-1 0.4826509597871823 1:3679 2:8 3:43 4:5.625 5:166 6:204 7:0.66856202 
-1 0.4398962901351879 1:153 2:1 3:3 4:0.625 5:5 6:6 7:0.77372051 
-1 0.4827533839304043 1:13 2:0 3:0 4:0 5:0 6:0 7:-0.43900848 
-1 0.4827533840711577 1:471 2:1 3:9 4:-4.431 5:39 6:44 7:0.37136868 
-1 0.4828842324408171 1:865 2:0 3:13 4:2.25 5:45 6:61 7:1.036689 
-1 0.4825542367779179 1:1068 2:4 3:24 4:5.375 5:76 6:92 7:0.60599596 
-1 0.4833766785854998 1:216 2:0 3:2 4:0 5:7 6:19 7:1.2976623 
-1 0.482766284012392 1:242 2:0 3:4 4:3.5 5:10 6:20 7:0.877054 
-1 -1 1:180 2:0 3:4 4:2.25 5:11 6:12 7:0.50627338 
-1 -1 1:44 2:0 3:1 4:0 5:4 6:4 7:0.00050418434 
-1 -1 1:97 2:0 3:2 4:2.5 5:2 6:5 7:0.63103017 
-1 -1 1:1867 2:6 3:67 4:1.75 5:132 6:259 7:1.3139994 
-1 -1 1:1055 2:5 3:23 4:6.25 5:77 6:89 7:0.55057612 
-1 -1 1:1004 2:5 3:15 4:3.875 5:50 6:62 7:0.67423377 
-1 -1 1:1441 2:6 3:18 4:2.625 5:60 6:73 7:0.7029254 
-1 -1 1:1608 2:3 3:22 4:0.444 5:72 6:79 7:0.44803578 
-1 -1 1:1260 2:5 3:17 4:-0.875 5:57 6:72 7:0.52347606 
-1 -1 1:358 2:2 3:21 4:9.75 5:16 6:43 7:1.6443805 
-1 -1 1:1150 2:3 3:16 4:-1.431 5:58 6:62 7:0.42591722 
-1 -1 1:254 2:4 3:6 4:2.125 5:13 6:12 7:0.053939027 
