svm_type c_svc
kernel_type rbf
gamma 0.142857
nr_class 3
total_sv 53
rho -0.440008 -0.480006 -0.0714286
label 1 0 -1
nr_sv 26 14 13
SV
0.5595701653980324 0.5195121488806692 1:2593 2:4 3:111 4:13.75 5:230 6:222 7:0.23129091 
0.5595701653980314 0.5195121488806163 1:47 2:0 3:1 4:-0.625 5:7 6:6 7:-0.72010073 
0.5604706898520274 0.5195121488806161 1:960 2:3 3:14 4:4.375 5:43 6:58 7:0.72176553 
0.5595701903561935 0.5195121488806154 1:711 2:2 3:15 4:5 5:31 6:59 7:1.2116238 
0.2506090104579926 0.2593708012224941 1:241 2:0 3:4 4:-0.875 5:12 6:15 7:0.36465181 
0.5595701315153802 0.5195121488805989 1:138 2:2 3:4 4:0.125 5:9 6:14 7:1.0435661 
0.5595720144209065 0.5195121488806153 1:88 2:1 3:2 4:0 5:4 6:5 7:0.46114365 
0.5604706898520275 0.5195121488806153 1:3504 2:7 3:53 4:10.375 5:137 6:232 7:1.1552416 
0.5604706898520275 0.5204723536716398 1:838 2:38 3:7 4:-28 5:98 6:58 7:-0.29517081 
0.5604706898520543 0.5204766668156261 1:324 2:16 3:8 4:-8.75 5:37 6:28 7:0.27990524 
0.5604706898520275 0.5195121488806161 1:307 2:0 3:5 4:-0.875 5:18 6:21 7:0.22724115 
0.5605466307123541 0.520472688131331 1:539 2:2 3:18 4:4.375 5:30 6:64 7:1.5139267 
0.5604706898520274 0.5195121488806692 1:109 2:1 3:6 4:-0.5 5:7 6:22 7:3.0257793 
0.560470689852026 0.5195121488806138 1:264 2:0 3:11 4:-6.375 5:32 6:24 7:0.37320869 
0.5604706898515418 0.5204768398255475 1:254 2:0 3:7 4:-4 5:25 6:16 7:0.051165858 
0.5605466307123275 0.5195121488805902 1:152 2:0 3:5 4:-2.375 5:8 6:11 7:0.93519194 
0.5595701315153901 0.5195121488806059 1:165 2:0 3:5 4:-1.25 5:14 6:15 7:0.38603808 
0.5595701903561935 0.5195121488806153 1:1188 2:3 3:16 4:-1.431 5:59 6:62 7:0.39371542 
0.5595701903561935 0.5204723536716398 1:1689 2:3 3:33 4:2.375 5:60 6:113 7:1.4208713 
0.5595701315153986 0.5204768398260254 1:1053 2:5 3:17 4:-0.875 5:52 6:65 7:0.55115252 
0.3105481142873059 0.2617394952683895 1:241 2:0 3:4 4:-0.875 5:12 6:15 7:0.4953164 
0.5595701315153986 0.5204768398260251 1:448 2:5 3:4 4:-5.5 5:59 6:27 7:-1.6165565 
0.5595701653975198 0.5204766668151491 1:247 2:1 3:0 4:-1.875 5:29 6:8 7:-3.1931049 
0.5595701315153986 0.5204768398260251 1:3475 2:7 3:53 4:10.375 5:136 6:231 7:1.2159118 
0.5595701653980314 0.5204768398260251 1:2748 2:5 3:46 4:12.5 5:113 6:173 7:0.8942673 
0.5595701903561935 0.5204768398260254 1:1994 2:2 3:28 4:6.5 5:74 6:102 7:0.6469832 
-1 0.9287109374999987 1:288 2:0 3:4 4:2.25 5:11 6:17 7:0.85523537 
-1 0.9287109374999987 1:1150 2:3 3:16 4:-1.431 5:58 6:62 7:0.42591722 
-1 0.9277343750000006 1:180 2:0 3:4 4:2.25 5:11 6:12 7:0.50627338 
-1 0.9277343750000006 1:97 2:0 3:2 4:2.5 5:2 6:5 7:0.63103017 
-1 0.9287109440195549 1:1441 2:6 3:18 4:2.625 5:60 6:73 7:0.7029254 
-1 0.9287109365686355 1:1608 2:3 3:22 4:0.444 5:72 6:79 7:0.44803578 
-1 0.9287109365686355 1:1260 2:5 3:17 4:-0.875 5:57 6:72 7:0.52347606 
-1 0.9287109365686359 1:1386 2:8 3:33 4:-0.5 5:110 6:205 7:1.483784 
-1 0.9287109374999987 1:1524 2:6 3:33 4:-9.625 5:112 6:196 7:1.1066451 
-1 0.9287109365686355 1:1867 2:6 3:67 4:1.75 5:132 6:259 7:1.3139994 
-1 0.9287109374999987 1:1979 2:4 3:82 4:13.625 5:153 6:307 7:1.6106102 
-1 0.9287109365686359 1:291 2:2 3:12 4:-6.5 5:22 6:19 7:0.45537122 
-1 0.9287109365686355 1:1055 2:5 3:23 4:6.25 5:77 6:89 7:0.55057612 
-1 0.9287109365686359 1:1004 2:5 3:15 4:3.875 5:50 6:62 7:0.67423377 
-1 -1 1:2426 2:2 3:25 4:6 5:85 6:136 7:1.0300231 
-1 -1 1:2694 2:5 3:45 4:13.5 5:104 6:178 7:1.2787507 
-1 -1 1:3679 2:8 3:43 4:5.625 5:166 6:204 7:0.66856202 
-1 -1 1:1248 2:3 3:43 4:2.125 5:92 6:198 7:1.7298851 
-1 -1 1:1442 2:4 3:19 4:-2.375 5:60 6:83 7:0.77000079 
-1 -1 1:269 2:0 3:4 4:-0.125 5:11 6:12 7:-0.14139519 
-1 -1 1:1308 2:0 3:21 4:0.375 5:73 6:89 7:0.59939151 
-1 -1 1:582 2:2 3:5 4:-0.75 5:45 6:48 7:0.77426325 
-1 -1 1:787 2:5 3:14 4:0.75 5:49 6:51 7:0.29342444 
-1 -1 1:2391 2:2 3:22 4:4.5 5:82 6:131 7:1.0008545 
-1 -1 1:2708 2:5 3:46 4:13.625 5:100 6:175 7:1.4130509 
-1 -1 1:2939 2:4 3:35 4:3.5 5:114 6:158 7:0.76690992 
-1 -1 1:1097 2:3 3:30 4:4.75 5:59 6:105 7:0.90037151 
